{"temp": [-1.6893813610076904, -1.581366777420044], "bias": [0.1093595027923584, 0.11280858516693115], "mapping.0.weight": [-0.17824102938175201, 0.0474584586918354, 0.04184988886117935, 0.09170769900083542, -0.010325189679861069, -0.5758025646209717, 0.0007450710400007665, -0.49982765316963196, -0.09956806898117065, 0.4624617397785187, -0.039972711354494095, -0.6713772416114807, 0.0629015564918518, -0.027480503544211388, 0.16430619359016418, -0.557532548904419, 0.08140899986028671, -0.12939323484897614, -0.008575992658734322, -0.0661594569683075, -0.24539883434772491, -0.029164182022213936, -0.025550829246640205, -0.02976328507065773, 0.16683824360370636, 0.005357832182198763, 0.18164142966270447, -1.0465703010559082, 0.13178393244743347, 0.2793550491333008, 0.28809019923210144, 0.03279143199324608, -0.010982132516801357, -0.1652831882238388, -0.11550667881965637, 0.07880457490682602, 0.06007816269993782, -0.140428364276886, -0.14208292961120605, 0.23406586050987244, -0.10564148426055908, -0.21833021938800812, -0.14178042113780975, -0.2812339961528778, -0.5636715888977051, 0.04142837971448898, 0.05380527675151825, -0.467997282743454, 0.045500822365283966, 0.24123236536979675, -0.05225471034646034, -0.16236381232738495, 0.09050562977790833, -0.12800565361976624, -0.28846457600593567, 0.22920852899551392, -0.15910497307777405, 0.206733837723732, -0.006391656119376421, -0.22078895568847656, 0.03802013397216797, 0.10994020849466324, 0.07570219784975052, 0.3098103404045105, 0.01154217030853033, 0.24882365763187408, 0.007618866395205259, -0.09502005577087402, -0.1746329814195633, 0.16138581931591034, -0.032114896923303604, 0.30802297592163086, -0.6203663945198059, 0.07916323095560074, 0.2504642903804779, -0.019476953893899918, 0.04999775439500809, 0.03146522119641304, 0.08477797359228134, -0.05976859852671623, 0.1570141315460205, 0.34277182817459106, 0.08648443967103958, -0.21602629125118256, 0.21087652444839478, 0.0432296060025692, -0.063556969165802, -0.574225664138794, 0.018955767154693604, 0.0799882635474205, 0.6290661096572876, 0.18479813635349274, -0.01632448099553585, 0.02252846024930477, 0.20547594130039215, 0.06632398813962936, 0.038285110145807266, 0.11056400090456009, -0.007738177664577961, -0.4621715545654297, 0.16666826605796814, -0.017464375123381615, 0.01095990464091301, 0.020399313420057297, 0.019004741683602333, -0.04177449643611908, -0.06489405035972595, 0.16973134875297546, 0.032577019184827805, -0.09458576142787933, 0.26646146178245544, -0.21726439893245697, -0.28120970726013184, 0.15289165079593658, -0.43205195665359497, 0.06109194457530975, -0.053660351783037186, -0.08529957383871078, -0.05528649687767029, -1.1760674715042114, 0.11949929594993591, 0.053384993225336075, 0.04947276785969734, -0.021699879318475723, 0.21563594043254852, -0.3142130374908447, 0.04946909844875336, 0.09496305882930756, -0.029246777296066284, 0.043604303151369095, -0.06342712789773941, -0.07989789545536041, -0.09476211667060852, 0.06360641121864319, -0.03863966464996338, -1.2061378955841064, -0.11000058799982071, 0.05122004821896553, -0.024244077503681183, -0.04861777648329735, 0.07050272077322006, 0.08573668450117111, 0.21087148785591125, 0.03751535713672638, -0.018373822793364525, -0.1337813436985016, 0.3819662630558014, 0.28766247630119324, 0.06063631922006607, 0.09692966938018799, 0.19203652441501617, -0.42069587111473083, 0.13774894177913666, -0.2183585911989212, 0.10738396644592285, -0.43797972798347473, 0.26668858528137207, 0.13755954802036285, -0.1434849053621292, -0.3182069659233093, 0.10985607653856277, 0.07190287858247757, -0.1730036735534668, 0.0528162457048893, -0.008148474618792534, -0.05631253868341446, 0.12532174587249756, -0.015860414132475853, 0.2603251039981842, -0.18632368743419647, 0.14513349533081055, 0.3421071171760559, 0.09951243549585342, -0.38663560152053833, -0.3313703238964081, -0.15642918646335602, -0.10659793764352798, 0.13393273949623108, -0.43010035157203674, 0.03966063633561134, -0.47277480363845825, -0.009861926548182964, -0.16015243530273438, -0.30182337760925293, -0.06882642209529877, 0.0821610540151596, -0.042382486164569855, 0.17898112535476685, -0.1474844515323639, -0.046842310577631, -0.03943620249629021, -0.3859545588493347, 0.16716009378433228, 0.019474180415272713, 0.150534525513649, 0.249830961227417, 0.015168718993663788, -0.0359293557703495, 0.19172610342502594, 0.24571526050567627, 0.2495223879814148, 0.058909036219120026, 0.01131381280720234, 0.06833026558160782, -0.18933996558189392, 0.10261695086956024, 0.01930229924619198, -0.3284431993961334, 0.03886779025197029, 0.49098488688468933, -0.14807485044002533, 0.10000726580619812, -0.2588367760181427, 0.0037875650450587273, -0.04362347722053528, -0.08204738795757294, 0.37165746092796326, -0.6542271971702576, -0.014562094584107399, 0.16583453118801117, -0.19802962243556976, -0.1642124056816101, 0.07706841081380844, -0.37502965331077576, 0.0076779634691774845, -0.10461406409740448, -0.1673685610294342, 0.1427336484193802, 0.011126725934445858, 0.03505871444940567, 0.057297755032777786, -0.0881471112370491, 0.0814983919262886, 0.07441579550504684, 0.15559744834899902, 0.21948443353176117, 0.1177971363067627, -0.0923149436712265, 0.139740988612175, 0.10269332677125931, -0.055059127509593964, 0.26946595311164856, 0.02014806680381298, -0.578181803226471, 0.015079143457114697, -0.8263278007507324, -0.097201868891716, -0.08926600217819214, -0.15102025866508484, 0.16609011590480804, -0.06731077283620834, 0.1362440288066864, 0.4629071056842804, -0.2181723266839981, -0.06487537920475006, 0.1491042822599411, -0.05830605328083038, 0.21431097388267517, -0.48948296904563904, 0.16235101222991943, -0.2240772396326065, -0.23488925397396088, 0.25710809230804443, 0.04449215158820152, -0.5033262968063354, -0.11385820060968399, 0.09921668469905853, 0.14883053302764893, -0.031321410089731216, 0.09769155830144882, 0.4133644998073578, -0.034952737390995026, -0.41826120018959045, -0.1038028821349144, 0.11899449676275253, 0.02910805307328701, -0.1456575244665146, 0.12655135989189148, 0.1109691932797432, -0.103290855884552, -0.07632184773683548, 0.09567645192146301, -0.35185062885284424, -0.24840211868286133, -0.2582430839538574, -0.28634944558143616, -0.1285022497177124, 0.1397925764322281, 0.0342639796435833, -0.03825575113296509, -0.16319437325000763, -0.06961002200841904, -0.010933039709925652, 0.02501969411969185, 0.018872004002332687, 0.03316846117377281, -0.10263387113809586, 0.04325014352798462, 0.020432574674487114, -2.0729293823242188, -0.003928457386791706, 0.024388698861002922, -0.0843476876616478, 0.1605062037706375, -0.007722496520727873, 0.08857399970293045, 0.18685367703437805, -0.11225304007530212, -0.3701668679714203, -0.16683460772037506, 0.1108909621834755, 0.030489420518279076, 0.04924248531460762, 0.043293122202157974, -0.02477976307272911, 0.13125208020210266, 0.00940285250544548, 0.3761456608772278, 0.14604304730892181, -0.014354804530739784, 0.19747145473957062, -0.2719325125217438, 0.22053338587284088, -0.08685164898633957, 0.2936905324459076, -0.17099882662296295, 0.39276984333992004, 0.11202533543109894, -0.08157550543546677, -0.4801950752735138, 0.14779634773731232, -0.02957768365740776, 0.10883928090333939, -0.48177072405815125, -0.04159516468644142, 0.1546400785446167, -0.34470024704933167, 0.13022048771381378, -0.10049432516098022, 0.011236429214477539, -0.3192255198955536, -0.12464862316846848, 0.24925081431865692, 0.08333644270896912, 0.30904245376586914, -0.010615096427500248, 0.06622279435396194, -0.1866137981414795, 0.006050416734069586, -0.09651283174753189, 0.10027259588241577, -0.07904859632253647, -0.04977002739906311, 0.018443278968334198, 0.06333445012569427, -0.16881926357746124, -0.18540261685848236, 0.22252129018306732, 0.03219034895300865, 0.32088974118232727, -0.20801521837711334, 0.09386597573757172, 0.3609393537044525, -0.0886773094534874, -0.011715630069375038, 0.07560734450817108, -0.16609914600849152, -0.04556461423635483, -0.010251928120851517, 0.4752316176891327, 0.008162198588252068, -1.656700849533081, 0.051619622856378555, -0.04907297343015671, -0.05626314878463745, 0.24065180122852325, 0.0780143141746521, 0.032612238079309464, 0.01660814695060253, 0.1916968822479248, 0.21348467469215393, -0.06577692925930023, 0.0489027313888073, 0.18441714346408844, -0.15192130208015442, 0.1842050701379776, -0.14845776557922363, 0.12980349361896515, 0.11463761329650879, 0.427633136510849, 0.06425263732671738, -0.05511079728603363, -0.26901698112487793, 0.17279081046581268, -0.0404822938144207, -0.6981260776519775, 0.2138965129852295, 0.13580802083015442, -0.21210144460201263, -0.019087953492999077, -0.1700315922498703, -0.16341270506381989, 0.06877517700195312, -0.05155060812830925, 0.09490673243999481, 0.08349888026714325, 0.019950933754444122, 0.1600925475358963, 0.05985825136303902, 0.041088372468948364, 0.021008381620049477, 0.059927135705947876, 0.11551481485366821, 0.0003026534977834672, -0.9023140668869019, 0.08278782665729523, 0.13458435237407684, -0.04421301186084747, -0.02846202626824379, -0.2229841649532318, 0.0755259171128273, -0.4122870862483978, 0.1618259698152542, -0.2688119113445282, -0.038063764572143555, -0.4757772982120514, 0.034063901752233505, -0.01978396624326706, 0.008925937116146088, 0.41077035665512085, -0.23033025860786438, 0.11576031148433685, 0.14605365693569183, 0.05820244923233986, 0.03570348769426346, -0.12333046644926071, -0.03691551461815834, 0.035048067569732666, 0.14670976996421814, 0.055685076862573624, -0.21347685158252716, -0.6614952683448792, -0.02364858239889145, -0.002444760175421834, 0.029053399339318275, -0.10629266500473022, -0.004073588643223047, 0.08437328785657883, 0.035220831632614136, -0.25082623958587646, 0.08029216527938843, 0.00919637642800808, 0.22343002259731293, 0.03136763721704483, 0.013056352734565735, 0.09942343086004257, 0.13813945651054382, 0.036253541707992554, 0.13052402436733246, -0.11126521974802017, 0.043232910335063934, -2.032599687576294, -0.1051173284649849, -0.03603369742631912, -0.14587317407131195, -0.07926742732524872, -0.02833130583167076, -0.13544559478759766, -0.36711639165878296, -0.11104756593704224, -0.13304297626018524, -0.019044918939471245, 0.1002875417470932, 0.016303062438964844, 0.014992504380643368, -0.22968173027038574, -0.12012365460395813, -0.7046496868133545, 0.07302934676408768, -0.059281859546899796, -0.1663292795419693, 0.031199075281620026, 0.09191977977752686, 0.01631404645740986, -0.059460531920194626, -0.08077084273099899, -0.3519861698150635, 0.08082899451255798, -0.008885317482054234, -0.1867748349905014, -0.0576796717941761, -0.36104413866996765, -0.00615794537588954, -0.02765532210469246, -0.009318923577666283, 0.5195673704147339, -0.421891987323761, 0.23172008991241455, -0.016837993636727333, 0.033753447234630585, -0.16619935631752014, -0.24621908366680145, -0.04863489791750908, -0.22075824439525604, -0.003743433626368642, 0.07996945828199387, 0.4931955933570862, -0.02782134711742401, 0.10376273095607758, -0.49034255743026733, 0.05532772094011307, 0.012295089662075043, 0.024233601987361908, 0.3889431655406952, -0.2593732476234436, -0.9754389524459839, -0.12720733880996704, -0.09420640766620636, 0.1068267747759819, -0.22495950758457184, -0.060065291821956635, 0.19829946756362915, 0.06687389314174652, 0.03802366182208061, -0.26787352561950684, 0.08633981645107269, 0.15545450150966644, 0.16773241758346558, -0.283701628446579, 0.0840841755270958, 0.027553986757993698, 0.15493017435073853, -0.4228513836860657, 0.29833659529685974, 0.13850775361061096, 0.2974180281162262, 0.03221810981631279, -0.5405693054199219, -0.026653021574020386, -0.2175264209508896, 0.15781374275684357, -0.017989855259656906, -0.3103116750717163, -0.05740924924612045, -0.006207997910678387, -0.16514575481414795, 0.2922084927558899, 0.16759295761585236, 0.148267924785614, -0.07758665084838867, 0.03727835416793823, 0.34051889181137085, -0.7238585948944092, 0.026047246530652046, 0.14029546082019806, 0.05844917893409729, -0.2254064828157425, 0.16634663939476013, -0.33583104610443115, -0.4456227123737335, -0.08813668042421341, 0.023171009495854378, -0.035819198936223984, -0.07448425889015198, 0.02610810473561287, -0.057130809873342514, -0.04400400444865227, 0.5647199749946594, -0.01762041077017784, 0.3393789827823639, 0.07273901998996735, 0.19269441068172455, 0.15677091479301453, 0.09471026062965393, 0.160564586520195, 0.045480381697416306], "mapping.0.bias": [0.14081087708473206, 0.044434837996959686, 0.06230993941426277, -0.0038584647700190544, 0.10888853669166565, -0.07731905579566956, 0.04527861624956131, -0.36478355526924133, -0.22748801112174988, -0.0033377790823578835, 0.4201447069644928, 0.1314847767353058, -0.21662338078022003, 0.0028413000982254744, -0.5046353936195374, -0.173131063580513, -0.6316060423851013, 0.23284651339054108, 0.07313447445631027, 0.21081770956516266, 0.1165580004453659, -0.07394111901521683, 0.27780330181121826, -0.21088209748268127, 0.3985438644886017, 0.024671189486980438, 0.30040085315704346, -0.08114349097013474, -0.09094608575105667, -0.2572142481803894, -0.4499984681606293, -0.21438847482204437], "mapping.2.weight": [-0.0652911365032196, 0.030476847663521767, 0.30604809522628784, -0.10026875138282776, -0.24330109357833862, -0.10330353677272797, -0.4485357403755188, -0.5042350888252258, 0.13850487768650055, 0.05738401040434837, -0.07965036481618881, 0.16282586753368378, -0.30528056621551514, -0.5515838265419006, 0.07649153470993042, -1.9484682083129883, -0.13219374418258667, -0.35476648807525635, -0.26375144720077515, -0.012990841642022133, -0.16887423396110535, 0.13254666328430176, 0.14190220832824707, -2.519152879714966, 0.08285077661275864, 0.34391462802886963, 0.2963031232357025, 0.14289239048957825, 0.2235388159751892, 0.01542453933507204, -0.0510394349694252, 0.2197301834821701, -0.05557401478290558, -0.06557603925466537, 0.09156626462936401, 0.2137463539838791, -0.2759843170642853, -0.1893480122089386, 0.13685834407806396, -0.5733085870742798, 0.23001433908939362, 0.3723490834236145, -0.007673065643757582, 0.14937126636505127, -0.24312274158000946, 0.08885756880044937, 0.03553524985909462, 0.1220574826002121, 0.12472718954086304, 0.21102125942707062, 0.09350094199180603, 0.08299662917852402, 0.2708662450313568, 0.11097445338964462, 0.14901848137378693, -0.2785704433917999, -0.05624473839998245, -0.07410919666290283, -0.3416087329387665, -0.08096688985824585, 0.18801985681056976, -0.756294846534729, 0.04151245951652527, 0.027944495901465416, 0.32851627469062805, -0.031041445210576057, -0.015242406167089939, -0.18607330322265625, -0.012784753926098347, -0.08124756813049316, -0.002538481028750539, 0.09423094242811203, -0.12320935726165771, 0.06561984866857529, -0.18131804466247559, -0.16562804579734802, 0.1397886425256729, 0.045320671051740646, -0.042634814977645874, -0.1682155877351761, 0.07320822030305862, -0.24432522058486938, -0.27019718289375305, 0.06665968894958496, 0.18638333678245544, -0.11336132138967514, 0.05715109035372734, 0.1283835619688034, 0.007235510274767876, -0.03476666659116745, -0.13329851627349854, -0.26728659868240356, 0.06856933981180191, 0.15304741263389587, 0.021561821922659874, -0.25047120451927185, 0.20276252925395966, 0.40420734882354736, 0.19495855271816254, 0.18972811102867126, 0.15057504177093506, -0.1298959106206894, -1.423568606376648, -0.512273371219635, -0.28793901205062866, 0.16441144049167633, 0.12322068959474564, 0.11652561277151108, 0.14136259257793427, -0.12108838558197021, 0.14296022057533264, 0.19834531843662262, 0.24102255702018738, -0.12735559046268463, -0.309784859418869, -0.10141334682703018, -0.9001005291938782, 0.053148213773965836, -0.031021559610962868, -1.3887279033660889, -0.2346988171339035, -0.14031952619552612, -0.02360502816736698, -0.5045778155326843, -3.1695852279663086, -0.744519054889679, -0.31290385127067566, 0.269779771566391, 0.24555890262126923, 0.3168727457523346, 0.2874945402145386, -0.04659896716475487, -0.1195407509803772, 0.1021510511636734, -0.1613052487373352, 0.286753386259079, 0.025329511612653732, 0.2544993460178375, -0.18848061561584473, -0.11006702482700348, -0.0468655489385128, 0.10654475539922714, -0.15300996601581573, -0.043961942195892334, -0.8176416754722595, -0.12947435677051544, 0.18989022076129913, 0.12516283988952637, -0.0177377350628376, -0.33038565516471863, 0.019187891855835915, -0.7892252206802368, 0.007152460981160402, -0.43402063846588135, -0.16842909157276154, -0.04669749364256859, 0.045863859355449677, -0.19204181432724, -0.44987601041793823, 0.1455076038837433, -0.390189528465271, -0.05255921185016632, 0.19436286389827728, 0.03727445378899574, 0.16432678699493408, -0.4621184170246124, -0.2685934901237488, 0.3153015673160553, 0.2791314423084259, 0.27157604694366455, 0.3568914234638214, 0.023350000381469727, -0.14658626914024353, 0.16491715610027313, 0.1763497292995453, 0.024200422689318657, 0.1635396033525467, -0.3038734197616577, 0.18693092465400696, -0.06692982465028763, -0.8793075680732727, -0.12500393390655518, 0.1725979894399643, -0.2076641470193863, 0.01984475366771221, -0.4036582410335541, 0.10302437841892242, -0.1819922775030136, -0.3015851676464081, 0.22126029431819916, -0.10428959876298904, 0.1416207104921341, 0.21230405569076538, -1.5075348615646362, 0.02873075380921364, 0.13161277770996094, 0.24042148888111115, -0.23717524111270905, -0.578210711479187, -0.01791325770318508, -0.34872695803642273, -0.04950685054063797, -0.22748449444770813, -0.08008046448230743, -0.04483237862586975, -0.051196858286857605, 0.08311870694160461, 0.1290624886751175, -0.3027949035167694, -0.3201694190502167, -0.028025969862937927, -0.3965851962566376, 0.3074150085449219, -0.053067561239004135, -0.3310689926147461, 0.22823436558246613, -0.24068869650363922, 0.15270459651947021, -0.07291809469461441, 0.16064906120300293, 0.05583440884947777, 0.16960471868515015, 0.38825953006744385, 0.19845286011695862, 0.16163934767246246, -0.18986836075782776, 0.1425177901983261, -0.07160601764917374, 0.40073123574256897, -0.15268513560295105, -0.14295169711112976, -0.566936731338501, 0.14081303775310516, 0.27047038078308105, 0.0702606663107872, -0.09017787128686905, -0.30316805839538574, -0.014390370808541775, -0.03989148885011673, -0.053575679659843445, 0.16500695049762726, -0.1275019347667694, 0.01723559945821762, -0.056859660893678665, -0.06872864812612534, 0.3430635929107666, -0.01597725786268711, 0.04433133825659752, -0.05680706724524498, -0.2814909815788269, -0.2238318920135498, 0.21441633999347687, 0.11733489483594894, 0.16990193724632263, 0.17878170311450958, 0.03895025700330734, -0.023611707612872124, 0.1661650538444519, -0.10658952593803406, 0.32051971554756165, -0.24838443100452423, 0.029177509248256683, -0.6136846542358398, -0.35065388679504395, 0.1892467886209488, 0.16383494436740875, 0.3978961408138275, -0.11326438933610916, 0.04289734736084938, -0.24186670780181885, -0.32566961646080017, -0.5782616138458252, -0.4352799355983734, 0.022150307893753052, -0.0008259346941486001, 0.01422062050551176, 0.06324072927236557, -0.1190720722079277, -0.12249186635017395, 0.2232740968465805, 0.1465986669063568, -0.319812148809433, 0.06957283616065979, 0.02108522690832615, 0.17317812144756317, -0.31724560260772705, -0.6387251615524292, -0.3586997091770172, 0.010404933243989944, 0.14933788776397705, -0.29617995023727417, -0.08277785778045654, 0.009057166986167431, 0.017385704442858696, -0.0007469705305993557, 0.425025999546051, 0.00872825924307108, 0.04338875040411949, 0.07773206382989883, 0.05283587425947189, 0.30217012763023376, 0.04396653175354004, -0.1854068785905838, 0.15810082852840424, -0.05124543979763985, -0.0406147800385952, -0.022693121805787086, -0.08685670793056488, 0.11862285435199738, -0.15580086410045624, -0.1634114682674408, 0.033806830644607544, 0.17530333995819092, -0.12324511259794235, -0.10495369881391525, 0.21154330670833588, 0.019414225593209267, -0.018326234072446823, -0.4173988699913025, 0.2448735237121582, -0.09632347524166107, -0.5938312411308289, -0.07049831748008728, -0.07611419260501862, 0.11161476373672485, 0.3079027831554413, -0.07614368200302124, 0.5709100365638733, 0.09837417304515839, 0.15298637747764587, -0.10643001645803452, -1.15804922580719, -0.1756744533777237, -0.2718648910522461, 0.2723669707775116, 0.04825687035918236, 0.1223762035369873, -0.3728443384170532, -0.37700730562210083, -0.07612531632184982, -0.5023499131202698, 0.1473618894815445, 0.03515676036477089, -0.31258562207221985, 0.20369911193847656, 0.2559349238872528, -0.11300291121006012, 0.07343708723783493, 0.1939205527305603, -0.4851941168308258, -0.16199278831481934, 0.1378602236509323, 0.044478144496679306, -1.3360400199890137, -0.2223641574382782, -0.04406017065048218, 0.38969293236732483, -0.11182825267314911, -1.4182357788085938, -0.21725311875343323, -0.22159293293952942, 0.1918436586856842, -0.3218435049057007, 0.139762282371521, -0.009932359680533409, -0.022997763007879257, 0.30038803815841675, 0.10376597195863724, -0.46136122941970825, 0.025058289989829063, -0.3823164999485016, -0.2514721751213074, -0.19128534197807312, -0.10527670383453369, 0.16135503351688385, 0.13308577239513397, 0.26237767934799194, -0.39663249254226685, -0.0028618243522942066, 0.22289061546325684, -1.161680817604065, 0.02634173259139061, -0.48595356941223145, 0.08093809336423874, -0.029467541724443436, -0.2916446626186371, -0.17418278753757477, 0.05303757265210152, -0.04307037964463234, -0.2919200658798218, -0.0839662179350853, -0.20255568623542786, -0.15208499133586884, -0.034047771245241165, 0.2379625290632248, 0.09371868520975113, -0.4966225028038025, 0.001002813340164721, 0.07912338525056839, 0.11532895267009735, 0.030718699097633362, 0.16435545682907104, 0.10478152334690094, -0.07192850857973099, 0.027072958648204803, 0.03141500800848007, -0.00471214996650815, -0.43474242091178894, -0.4165683090686798, 0.18490859866142273, 0.023105742409825325, -0.22397854924201965, -0.00046597831533290446, -0.3913983106613159, 0.014165228232741356, -0.10558547079563141, -0.18856750428676605, -0.1914646178483963, 0.05443457514047623, -0.41890570521354675, 0.11258784681558609, 0.309035062789917, 0.20891429483890533, 0.09341553598642349, 0.19074353575706482, 0.16909398138523102, 0.1905532032251358, 0.09928534179925919, 0.29782745242118835, -0.053024161607027054, -0.0017994180088862777, -0.02075926400721073, 0.09748132526874542, 0.09569647908210754, 0.3088419735431671, -0.09068261831998825, -0.005912757012993097, -0.00278202211484313, -0.3875587284564972, -0.020711900666356087, -0.20784544944763184, 0.21862384676933289, -0.12569741904735565, 0.07507001608610153, -0.1887402981519699, -0.0966063141822815, -0.31292468309402466, 0.2549041211605072, 0.11017706245183945, 0.09671725332736969, -0.23571203649044037, -0.029046563431620598, -0.032667189836502075, 0.26495400071144104, 0.3334127366542816, -0.28219106793403625, 0.257333368062973, 0.07431988418102264, 0.0157904252409935, -0.20425811409950256, -0.0689227432012558, -0.028290564194321632, -0.043173033744096756, 0.047661591321229935, -0.03303731977939606, -0.17834307253360748, 0.15015451610088348, 0.018476899713277817, 0.31134840846061707, -0.37129274010658264, -0.13456003367900848, -0.015448483638465405, 0.07223719358444214, 0.32188233733177185, -0.5579886436462402, 0.006759726442396641, -0.06425196677446365, -0.10381563752889633, 0.023777322843670845, -0.3347102403640747, 0.25823870301246643, -0.06901951134204865, -0.02076069451868534, 0.10039371252059937, 0.20276519656181335, 0.06775695830583572, 0.1398710459470749, -0.12507565319538116, 0.10979340970516205, 0.029438193887472153, -0.0662037581205368, -0.12620191276073456, -0.04335835576057434, -0.0026139214169234037, 0.05515557527542114, 0.15392953157424927, 0.1784682422876358, -0.2184274047613144, 0.01449496764689684, -0.002356981858611107, 0.20273080468177795, -0.03526364266872406, 0.24191507697105408, 0.10660625249147415, -0.2683616578578949, -0.21386000514030457, 0.10514386743307114, 0.25356096029281616, 0.06520494818687439, 0.16554415225982666, -0.11011004447937012, 0.11872115731239319, -0.14316709339618683, 0.15073680877685547, 0.11083412170410156, -0.15610529482364655, -0.16845998167991638, 0.02880253829061985, 0.22313325107097626, 0.24690070748329163, 0.15532465279102325, -0.006959718652069569, 0.1617261916399002, 0.06240752339363098, 0.07456083595752716, 0.18922364711761475, 0.3107077181339264, -0.1517249047756195, -0.39143073558807373, 0.12536539137363434, -0.03233383223414421, -0.14570030570030212, -0.08215274661779404, -0.16415007412433624, 0.27638155221939087, 0.25376638770103455, -0.37131133675575256, -0.19738087058067322, 0.0479438453912735, -0.15970540046691895, 0.08883187919855118, 0.05457554757595062, 0.06065402179956436, -0.29900363087654114, -0.13160893321037292, -0.41898927092552185, 0.03576260805130005, 0.21503956615924835, 0.21886561810970306, 0.19139905273914337, -0.05444108694791794, 0.22808851301670074, -0.12991221249103546, 0.21786870062351227, 0.09097489714622498, -0.25511667132377625, 0.21788112819194794, -0.20797114074230194, 0.1613791435956955, 0.10243076831102371, -0.44208085536956787, 0.07065475732088089, -0.6587820649147034, -0.10434532910585403, -0.2605094313621521, -0.04930970072746277, 0.19282175600528717, -0.2588179409503937, -0.22325581312179565, -0.4131681025028229, -0.5199797749519348, -0.12031237781047821, -0.05341296270489693, -0.02963252179324627, -0.028815461322665215, -0.31599482893943787, 0.14482812583446503, -0.11032713204622269, -0.12024323642253876, -0.26593896746635437, 0.007130224257707596, -0.044715624302625656, 0.1470564305782318, -0.0005789633723907173, 0.10253860801458359, -0.12032632529735565, 0.10088919848203659, -0.062067486345767975, 0.022502755746245384, 0.008813481777906418, -0.2663072347640991, -0.29277488589286804, 0.9771238565444946, -0.13076651096343994, 0.029266634956002235, -0.10445434600114822, 0.30624866485595703, 0.0898388922214508, 0.01315911766141653, -0.01616773195564747, 0.003967206459492445, 0.2713760435581207, 0.18590165674686432, -0.32747602462768555, 0.17046037316322327, -0.10807865113019943, -9.747784497449175e-05, -0.0697697177529335, -0.07307925820350647, 0.07843990623950958, -0.7092768549919128, -0.016667170450091362, 0.08930869400501251, 0.05077637359499931, -0.1279381364583969, -0.051618266850709915, -0.6724780201911926, -0.21665100753307343, 0.2871949076652527, -0.008413143455982208, 0.04231280833482742, 0.046799544245004654, -0.168312668800354, -0.6224062442779541, 0.434856653213501, 0.1373859941959381, 0.02985321916639805, -0.09028733521699905, 0.17263631522655487, -0.034745827317237854, -0.10748261958360672, -0.3105888068675995, -0.10648293793201447, -0.2832423448562622, 0.43057581782341003, 0.35117432475090027, -0.24001818895339966, 0.03544526547193527, -0.033948082476854324, 0.05355047434568405, -0.24990546703338623, 0.14134041965007782, 0.28960928320884705, -0.049916770309209824, 0.026108119636774063, -0.16625753045082092, 0.0881119817495346, 0.025373131036758423, 0.5134102702140808, 0.003943582531064749, 0.08297666907310486, 0.16361883282661438, 0.16893261671066284, 0.16996636986732483, -0.3165930509567261, 0.26659053564071655, 0.21073795855045319, -0.10826902836561203, 0.33620649576187134, 0.1357923150062561, -0.05603378266096115, -0.11485202610492706, 0.022078903391957283, -0.08666906505823135, 0.13179948925971985, -0.07910088449716568, 0.31466352939605713, 0.1252746433019638, -0.10096970945596695, 0.06817632168531418, -0.19587063789367676, -0.3065047264099121, 0.16146548092365265, -0.07987366616725922, -0.0838886946439743, -0.4086551368236542, -0.01961943879723549, 0.08159401267766953, 0.33416980504989624, -0.05111214146018028, 0.12970365583896637, -0.03561287000775337, -0.07136571407318115, -0.20573049783706665, 0.06820506602525711, 0.34495314955711365, 0.47754791378974915, -0.16278336942195892, 0.19098393619060516, -0.031158829107880592, 0.011478213593363762, 0.04989073425531387, -0.29104849696159363, 0.06294110417366028, -0.06286612153053284, 0.1291913539171219, -0.0676455944776535, 0.11432260274887085, -0.0384519025683403, -0.19027219712734222, 0.10680846869945526, -0.27894991636276245, 0.22177661955356598, -0.2219572216272354, 0.2489524483680725, -0.062263164669275284, -0.17322997748851776, 0.10858135670423508, -0.11214890331029892, 0.26589494943618774, -0.1730249673128128, -0.045198895037174225, 0.1330735981464386, -0.05908426269888878, -0.4295053780078888, -0.05566185340285301, -0.6638265252113342, -0.07155031710863113, -0.029843775555491447, -0.17452573776245117, -0.13849207758903503, -0.15476861596107483, -0.025286320596933365, -0.4320432245731354, 0.13606847822666168, 0.2734718918800354, 0.02054976113140583, 0.039650581777095795, 0.11650444567203522, -0.06389801949262619, -0.08965503424406052, -0.28686389327049255, -0.1885695904493332, 0.1585540473461151, -0.0590076670050621, 0.007970942184329033, 0.15809473395347595, -0.14437530934810638, 0.014536465518176556, -0.09850570559501648, 0.010439158417284489, -0.2498234361410141, 0.026579352095723152, -0.6528957486152649, -0.04500709846615791, -0.06979534029960632, 0.00829851534217596, -0.2504500150680542, 0.02513609640300274, 0.4916631281375885, -0.3338499367237091, 0.019804732874035835, -0.6154338717460632, 0.008562692441046238, -0.023294521495699883, -0.08838541805744171, -0.22120025753974915, 0.11134011298418045, 0.11157146841287613, -0.04627289995551109, -0.07046186923980713, -0.4723062813282013, 0.1501728594303131, -0.006533480249345303, -0.11641081422567368, -0.06729742139577866, 0.18395233154296875, -0.12161590903997421, -0.3372907340526581, -0.10609730333089828, -0.013795487582683563, -0.7263253927230835, -0.1536497324705124, -0.03358418121933937, -0.11953400820493698, 0.5149586200714111, 0.15066051483154297, -0.4534851014614105, 0.1826365441083908, 0.14913831651210785, 0.183782160282135, -0.26428505778312683, -0.18599718809127808, 0.023141155019402504, -0.0971643328666687, 0.12408917397260666, -0.26037490367889404, -0.12073715031147003, 0.3571871221065521, 0.08092004805803299, 0.20067498087882996, -0.38590604066848755, -0.28066229820251465, 0.22660361230373383, -0.019166085869073868, -0.8368549942970276, -0.1600363403558731, -0.03474069759249687, 0.041692640632390976, 0.09158872067928314, 0.06393719464540482, -0.12595540285110474, 0.13863912224769592, 0.1681823432445526, -0.27329739928245544, 0.19208431243896484, 0.18075311183929443, -0.5765047073364258, -0.015127232298254967, 0.23389431834220886, 0.18577013909816742, -0.14588375389575958, -0.03328996151685715, 0.30881237983703613, -0.7855310440063477, 0.03792954981327057, -0.5839052200317383, 0.097059465944767, -0.8964775800704956, -0.34193000197410583, 0.4453960955142975, -0.3880038559436798, 0.012950333766639233, -0.42245060205459595, -0.019378600642085075, -0.26099279522895813, -0.0692579597234726, -0.017129553481936455, -0.20838730037212372, -0.10786382853984833, -0.46221789717674255, -0.18698956072330475, 0.0442347414791584, -1.3668982982635498, 0.07810159027576447, 0.15460658073425293, 0.2613576650619507, -0.16104896366596222, 0.3099488914012909, 0.30966269969940186, -0.610089123249054, 0.14818790555000305, -0.011401032097637653, -0.08091399073600769, 0.21910341084003448, 0.1705804318189621, 0.2265079766511917, 0.18892662227153778, -0.36995217204093933, -0.32375964522361755, -0.283146470785141, -0.17377541959285736, -0.4105924367904663, 0.040355224162340164, -0.05588304251432419, 0.16121169924736023, -0.4656756520271301, 0.052649207413196564, -0.204233318567276, 0.16965921223163605, 0.28166380524635315, 0.3381933569908142, -0.19968587160110474, -0.15763512253761292, 0.18001072108745575, -0.0034077586606144905, -0.7107585668563843, 0.4086866080760956, -0.3770209550857544, 0.03564206883311272, -0.07791315764188766, 0.156774640083313, 0.04011708125472069, -0.06866273283958435, 0.015118999406695366, -0.18773983418941498, 0.1290438175201416, -0.12256105244159698, -0.45621412992477417, -0.8459113836288452, 0.20554955303668976, -0.02593989484012127, -0.7017360329627991, -0.5834926962852478, -0.11248623579740524, 0.40433424711227417, -0.40860629081726074, 0.41410887241363525, 0.05719684436917305, 0.24746280908584595, -0.7451145648956299, 0.16621756553649902, -1.515747308731079, -0.08198396861553192, -1.0459307432174683, -0.04810887575149536, 0.312884658575058, -0.23588334023952484, 0.2182549089193344, 0.24777838587760925, -0.14948542416095734, -0.2720857858657837, 0.045999497175216675, -0.3480059802532196, -0.11038777977228165, 0.1251395046710968, -0.12303971499204636, 0.2341282218694687, -0.04015275835990906, -0.04322526231408119, 0.1401350349187851, 0.04234780743718147, 0.20848757028579712, 0.10409630089998245, 0.07584753632545471, 0.24577568471431732, -0.058509185910224915, -0.030864672735333443, -0.027105435729026794, -0.4511280059814453, 0.17530103027820587, 0.32960596680641174, -0.03721652179956436, -0.24765925109386444, -0.05133643373847008, -0.11509343236684799, 0.16856063902378082, -0.10324586182832718, -0.2046339064836502, -0.030700024217367172, 0.14901046454906464, 0.21904030442237854, 0.00739452987909317, -0.14947551488876343, 0.384059339761734, -0.010455750860273838, 0.0047926828265190125, -0.13956625759601593, 0.01789744198322296, 0.18215379118919373, -0.2584914565086365, -0.05666082724928856, -0.07527930289506912, 0.009506701491773129, -0.18576064705848694, -0.03762921690940857, 0.11517371982336044, -0.13988395035266876, 0.10286317020654678, 0.0888870507478714, -0.1399751901626587, 0.2879938781261444, -0.20553390681743622, 0.07173927873373032, -0.04158090427517891, 0.09653248637914658, 0.10995958745479584, -0.3051784634590149, 0.22166596353054047, -0.4288528263568878, 0.22539354860782623, -0.08158233016729355, 0.02831522561609745, -0.12458766996860504, 0.1545003205537796, 0.17914314568042755, 0.20347580313682556, 0.012156788259744644, 0.052638374269008636, -0.13319693505764008, 0.17764660716056824, -0.25066694617271423, -0.057839833199977875, 0.19940324127674103, -0.06231674179434776, -0.1088227853178978, 0.38242265582084656, -0.21974223852157593, -0.06204022467136383, -0.12150325626134872, 0.13483065366744995, -0.20217512547969818, 0.06774549186229706, 0.13207487761974335, -0.10249052941799164, 0.3839813768863678, -0.04543421417474747, -0.21497315168380737, 0.26564452052116394, -0.026048049330711365, -0.13716530799865723, 0.04056403785943985, -0.2882678508758545, 0.29444149136543274, 0.030306639149785042, -0.08780644088983536, -0.04813310503959656, 0.1409093290567398, 0.08167768269777298, 0.5328384637832642, 0.15465091168880463, -0.044503841549158096, -0.13172651827335358, -0.09157607704401016, -0.1476128101348877, 0.08000879734754562, 0.04023410379886627, 0.00273529882542789, -0.5821142792701721, -0.13527195155620575, 0.030002828687429428, -0.08676594495773315, 0.010998714715242386, 0.05697494000196457, -0.09711648523807526, 0.05878213047981262, 0.08525308966636658, -0.08998043090105057, 0.11812622845172882, -0.008970349095761776, 0.1372707039117813, -0.061387594789266586, -0.009445794858038425, 0.11949247866868973], "mapping.2.bias": [-0.09110402315855026, -0.36895641684532166, 0.3713824450969696, -0.36348000168800354, 0.14681874215602875, -0.49189457297325134, -0.37560567259788513, 0.11978040635585785, 0.025947928428649902, 0.19422192871570587, 0.1690913885831833, -0.11465996503829956, 0.4219335913658142, -0.020708704367280006, 0.10219552367925644, 0.12227493524551392, 0.16657857596874237, 0.2724650204181671, -0.2849900424480438, -0.031908415257930756, 0.1452191174030304, 0.202989399433136, 0.34107357263565063, 0.3370886743068695, -0.1761196106672287, -0.08850501477718353, -0.12206824123859406, 0.06862271577119827, -0.004514746367931366, 0.23954495787620544, 0.1891089230775833, -0.8035340905189514], "mapping.4.weight": [0.5122750401496887, 0.1417449563741684, 0.02567058987915516, -0.4544726014137268, 0.027164483442902565, 0.4498298466205597, -0.509772002696991, 0.15054678916931152, 0.1767788678407669, -0.1426059752702713, -0.23685672879219055, -0.434705525636673, 0.25466662645339966, 0.18824684619903564, -0.024085484445095062, 0.1177743524312973, -0.12718069553375244, 0.038394831120967865, -0.011317946948111057, -0.05969353765249252, -0.17721480131149292, -0.1583584100008011, -0.2586823105812073, -0.11272618174552917, -0.10126103460788727, 0.07201407104730606, 0.34333422780036926, 0.6058621406555176, -0.1506277322769165, -0.046656131744384766, 0.008842756040394306, 0.5189664363861084, 0.17047181725502014, -0.12063344568014145, -0.19728821516036987, -0.6967309713363647, 0.21571464836597443, 0.4607638716697693, -0.10306838899850845, 0.11631105095148087, 0.12795330584049225, 0.018889255821704865, -0.4397846460342407, -0.39762526750564575, 0.023272071033716202, 0.07282570749521255, 0.17482014000415802, 0.03693119063973427, 0.12028488516807556, 0.27525797486305237, 0.3319476842880249, -0.20891892910003662, -0.18081679940223694, -0.14927475154399872, -0.029337171465158463, 0.23042692244052887, -0.4538455307483673, -0.2887798249721527, -0.07911515980958939, 0.8898506760597229, 0.10350367426872253, -0.13251730799674988, -0.21510420739650726, 0.7279728055000305], "mapping.4.bias": [-0.08866739273071289, -0.11592166125774384], "mean": [4.081401348114014, 4.044424533843994, 4.364771366119385, 1.0583759546279907, 1.0734108686447144, 1.0673000812530518, 0.05801847204566002, 0.05690006911754608, 0.0595865361392498, 0.23088310658931732, 0.3179370164871216, 0.27891308069229126, 1.557021141052246, 1.532646894454956, 1.662554383277893, 0.037149347364902496, 0.05136571824550629, 0.033425189554691315], "std": [2.095299243927002, 2.05755877494812, 2.245478391647339, 0.2655380666255951, 0.30679869651794434, 0.3159554600715637, 0.23377838730812073, 0.23165155947208405, 0.23671919107437134, 0.14694924652576447, 0.24790172278881073, 0.5330278277397156, 0.848924994468689, 0.8336960673332214, 0.9271152019500732, 0.19046415388584137, 0.22631336748600006, 0.18746811151504517]}